1.303435658017715326e-11
-1.120174439317445092e-10
-3.050613095467724634e-10
1.176544278669311439e-10
1.682856076712369031e-10
-3.060600939353008698e-10
-1.780774139259477806e-10
1.446052999565239361e-11
2.254131777068568709e-11
-1.355557194271383992e-10
-3.776775836517032303e-10
1.276776323555495196e-10
2.371100815690141417e-10
-4.226259897599504711e-10
-2.478977023656625533e-10
3.385603603023312758e-11
1.569842346393901522e-11
-2.398428851357881086e-11
-1.305977548327064142e-10
-2.203315724313981150e-10
-2.496917950178811907e-10
2.355045602975280872e-10
-2.403509058446218205e-10
-8.146288504873311354e-11
7.671075146625794261e-13
1.177772549626476817e-11
3.556408639804331528e-11
4.013093676813461741e-12
-8.859434887098505129e-12
2.680179689296124934e-11
1.445835985658394662e-11
6.273365073944381365e-13
-4.099145610621246494e-13
-5.250456753397303444e-12
-1.588656810269650776e-11
-2.842019154736252773e-12
4.976749481272468856e-12
-1.310573958385186089e-11
-6.720075884647513931e-12
-4.849390745735593367e-13
-2.932209379816197448e-12
3.020410744430934713e-12
1.185926790797653396e-11
2.241849587913957720e-11
4.794020042053759312e-11
-2.526948919209792699e-12
6.554130849156791783e-11
1.822145212493353483e-11
1.723673070594400336e-12
-5.026625383292016025e-12
-1.567518684297830589e-11
5.246905774441978920e-12
7.734508346290969172e-12
-1.427010853233268151e-11
-8.229567201312182334e-12
1.840101205088928715e-12
-5.614217857968784031e-13
-1.259629770281045502e-12
-4.594941181018663556e-12
1.124499581992011166e-12
2.859021179524301459e-12
-6.173937663195294689e-12
-2.621087158080626089e-12
3.354687133551997880e-13
-5.241527291409767142e-14
2.139363583205169950e-13
1.507289844153436587e-12
2.524143871349138202e-12
2.958407390590833685e-12
-2.911555328430348588e-12
2.793378592672035587e-12
1.309016046599498218e-12
