-1.280370395210367329e-13
-1.421010119469212629e-12
-3.338244828135494835e-12
-6.300750719778758224e-12
9.250076832972853325e-13
-1.959481405258700626e-12
-2.920665662445309785e-12
1.286493481189587840e-12
2.792403244397667628e-12
-1.743941970000495445e-11
-5.017496487735861876e-11
-6.426624510336154117e-11
-7.250005457093422478e-11
1.198367516330733906e-10
-9.902443448561726314e-11
-4.696075125987242416e-11
2.076758470054285155e-12
6.489921447472291050e-12
1.501693908112500253e-11
2.840492251132697987e-11
-7.716880953689830847e-12
1.053000568684847593e-11
1.667470848898400249e-11
-5.539939167131802122e-12
-3.034991149456628401e-13
4.086608655640144860e-12
1.287841534802769417e-11
1.818124296948386842e-11
1.695995427430929681e-11
-3.062376741080896636e-11
1.397055388041579249e-11
8.386066147059167974e-12
-3.268647830699522583e-13
-3.864214503934704226e-12
-9.116160951117002753e-12
-1.756706065336732792e-11
3.696106788686481792e-12
-2.842133429645232745e-12
-6.953208842030988990e-12
3.643659592794668001e-12
1.246155847782481896e-12
-9.404716588834460822e-12
-2.919995842343148240e-11
-3.827362385355748131e-11
-3.361910749788421526e-11
7.408737512371033063e-11
-3.916944199544580840e-11
-2.140695606889231328e-11
